{
  "b1": {
    "first_values": [
      -0.020558437885633957,
      -0.17005964409833607,
      0.12333690523364627,
      0.08574593583123023,
      -0.01773096097844033,
      -0.07443843840625877,
      0.03273120501866237,
      0.01633043824735278,
      0.03980322282956692,
      -0.08978612545318913
    ],
    "max": 0.19517162725367437,
    "mean": 0.016512774729983037,
    "min": -0.18554560181733848,
    "shape": [
      256
    ],
    "std": 0.08199315736191208
  },
  "b2": {
    "first_values": [
      0.009456262943915267,
      -0.033568895387512156,
      -0.01966580328694082,
      -0.04006249739467372,
      -0.03466447185474615,
      -0.051769064874102586,
      0.020272391738060024,
      -0.05658963592945054,
      -0.07410341414563071,
      -0.07168305102365334
    ],
    "max": 0.05600816453287128,
    "mean": -0.01786526260710989,
    "min": -0.12444216557007495,
    "shape": [
      256
    ],
    "std": 0.03235528986549492
  },
  "b3": {
    "first_values": [
      -0.0858902712466985,
      0.051119974985256895,
      0.04811670158700263,
      -0.01748841969309609
    ],
    "max": 0.051119974985256895,
    "mean": -0.0010355035918837652,
    "min": -0.0858902712466985,
    "shape": [
      4
    ],
    "std": 0.05614081238623121
  },
  "w1": {
    "first_values": [
      0.02109210379638487,
      -0.26503396221299114,
      -0.05887490776606597,
      -0.7866958256776304,
      0.49274917190882395,
      0.3760324528547678,
      -0.18218885382876066,
      0.19817386770463388,
      0.07162240254890306,
      -0.20212957861036177
    ],
    "max": 1.1706892248310263,
    "mean": -0.009517874470975586,
    "min": -1.7337012683050017,
    "shape": [
      17,
      256
    ],
    "std": 0.3501245822394791
  },
  "w2": {
    "first_values": [
      0.0038188509392086158,
      0.06097938189082775,
      0.08927228458131285,
      0.05631303263325338,
      0.03314910044048939,
      -0.0025905820409281863,
      0.033463849630964,
      0.09987323771471887,
      -0.056503137004702934,
      -0.019147168450681002
    ],
    "max": 1.0365063556217886,
    "mean": -0.01698814181564441,
    "min": -2.6421073904487,
    "shape": [
      256,
      256
    ],
    "std": 0.11598764522669645
  },
  "w3": {
    "first_values": [
      -0.007834357846815146,
      -0.0089401439807084,
      0.023745152491250376,
      -0.008403819211050038,
      -0.004405330263552863,
      -0.003305128732860073,
      0.001958163625869612,
      -0.0027929772686769026,
      0.009595029837673462,
      -0.006037721582539882
    ],
    "max": 0.40804735107540663,
    "mean": -0.00015204701829704247,
    "min": -1.2195139601284177,
    "shape": [
      256,
      4
    ],
    "std": 0.06230544495455731
  }
}
